B0,B1,B2,B3,,BG0,BG1,BG2,BG3
-0.016576617549241373,0.033725005825793186,-0.022729679865064144,-0.09031116998351738,          ,0.0,0.0,0.0,0.0
-0.054146681327688795,0.07022177175751455,-0.0284512120316926,0.051084380369388276,          ,0.0,0.0,0.0,0.0
-0.0037820992103220746,-0.030867737943418974,0.04977928724083504,-0.05763686191029447,          ,0.0,0.0,0.0,0.0
-0.065557620494516,0.06891118933560256,0.011558620304428962,-0.047076128654985755,          ,0.0,0.0,0.0,0.0
-0.08029095031430289,-0.04794479468907714,0.015208759402733146,0.18648548777543522,          ,0.0,0.0,0.0,0.0
-0.02462257875276326,0.11112900597295394,-0.011412855400129615,0.2676178672335198,          ,0.0,0.0,0.0,0.0
-0.013819781449160368,0.0054936084140007205,-0.06150328204068108,-0.012561330456295698,          ,0.0,0.0,0.0,0.0
-0.13305117189937066,0.11805351717440436,-0.10403031609456229,-0.072004528174797,          ,0.0,0.0,0.0,0.0
-0.13963637386813338,0.08357526144911094,-0.023273947903922048,0.3592371398267948,          ,0.0,0.0,0.0,0.0
-0.046755642004796504,-0.04325194272177375,0.009082809988775274,0.15852837864229646,          ,0.0,0.0,0.0,0.0
0.0021938412058903583,0.053510571850827,-0.050986360416765596,          ,          ,0.0,0.0,0.0,          
0.03363690748638798,0.08266379260483288,0.03594152108452455,          ,          ,0.0,0.0,0.0,          
0.009753581510757321,-0.06987424376802376,-0.07286208390842544,          ,          ,0.0,0.0,0.0,          
-0.04295613810678797,-0.03578172043615717,-0.050589952671823056,          ,          ,0.0,0.0,0.0,          
-0.061512787480573615,0.11998777469356746,-0.10496985689614209,          ,          ,0.0,0.0,0.0,          
0.08662109007524255,0.015303492789660625,-0.1334060057677207,          ,          ,0.0,0.0,0.0,          
-0.04699310328553889,-0.01540052101803082,-0.07177479273979154,          ,          ,0.0,0.0,0.0,          
0.021176444835965678,-0.07713260983896594,-0.05679695744364678,          ,          ,0.0,0.0,0.0,          
-0.03144633446752469,-0.08461169577473035,0.06580444695337784,          ,          ,0.0,0.0,0.0,          
0.01786734594162427,-0.43503590999416214,0.007602984436430373,          ,          ,0.0,0.0,0.0,          
-0.020222047997595586,-0.14072248747849475,-0.1903870396484788,          ,          ,0.0,0.0,0.0,          
-0.039664506514861045,0.01794884016630402,0.08942586369546929,          ,          ,0.0,0.0,0.0,          
-1.3147454034728805e-05,-0.012596048252007566,-0.08649154504571437,          ,          ,0.0,0.0,0.0,          
0.03296871933515528,0.07934890039161276,-0.02416026693038994,          ,          ,0.0,0.0,0.0,          
0.044942707403963195,0.01024135297173652,0.08484190843004447,          ,          ,0.0,0.0,0.0,          
-0.02035316273470198,-0.14820275345651182,0.02576604154824056,          ,          ,0.0,0.0,0.0,          
0.004568161744798609,0.1457319856749247,0.02389778108968377,          ,          ,0.0,0.0,0.0,          
-0.09542792224386248,0.029670000290073505,-0.11111144262202521,          ,          ,0.0,0.0,0.0,          
0.016134534760164798,-0.1973206708295555,0.012498355556310356,          ,          ,0.0,0.0,0.0,          
0.046210341494769505,-0.01768839099311998,-0.13014563985851751,          ,          ,0.0,0.0,0.0,          
0.04827502072137538,-0.14320908122628445,-0.060576063827676815,          ,          ,0.0,0.0,0.0,          
-0.06752218066813553,-0.20549815290566037,0.034996870004275656,          ,          ,0.0,0.0,0.0,          
0.011263410185620378,0.041727843835054214,-0.0788261420749163,          ,          ,0.0,0.0,0.0,          
-0.06153657970568434,0.05006351532681731,-0.060917449070232985,          ,          ,0.0,0.0,0.0,          
-0.061047940462957015,0.049664424791832425,0.06673430183918039,          ,          ,0.0,0.0,0.0,          
0.08097595063975534,-0.015266916618385841,-0.16613422632649372,          ,          ,0.0,0.0,0.0,          
0.04625955482414898,0.24046071865088287,0.04621991296089239,          ,          ,0.0,0.0,0.0,          
0.024369343338787174,-0.024468501467336347,0.002576476750005483,          ,          ,0.0,0.0,0.0,          
-0.03657238394130507,0.037998159696403265,0.0044457829308534565,          ,          ,0.0,0.0,0.0,          
0.02563237612569253,0.01267187650474201,0.02225099212338056,          ,          ,0.0,0.0,0.0,          
-0.04952693872214393,0.1558297894891255,-0.03472694204406687,          ,          ,0.0,0.0,0.0,          
-0.028075107037639886,0.09602410348681684,-0.028933790160197002,          ,          ,0.0,0.0,0.0,          
-0.02798970040720939,0.28659731855365356,-0.10368718616704879,          ,          ,0.0,0.0,0.0,          
0.05055481315313551,-0.014029019479838258,-0.10916996453642125,          ,          ,0.0,0.0,0.0,          
0.02478239295757497,0.18019205078207995,0.02701434077940632,          ,          ,0.0,0.0,0.0,          
-0.10669784339519553,-0.04352699083646128,0.009444802021011195,          ,          ,0.0,0.0,0.0,          
-0.013256938169734861,-0.06391986390245817,0.05679196651368184,          ,          ,0.0,0.0,0.0,          
-0.031098524106627206,-0.12792754441329582,-0.10079874768060079,          ,          ,0.0,0.0,0.0,          
-0.04174382738885519,-0.16726315344097514,0.045004921272860224,          ,          ,0.0,0.0,0.0,          
0.06058401478628978,-0.10395102903635084,-0.05304844067080671,          ,          ,0.0,0.0,0.0,          
0.0067466681856291275,0.139047030480409,0.0415773946908265,          ,          ,0.0,0.0,0.0,          
-0.03524249387749977,-0.0923776618245457,-0.007178542972679269,          ,          ,0.0,0.0,0.0,          
0.0463479259962959,-0.13513797948688616,0.06957192496857616,          ,          ,0.0,0.0,0.0,          
-0.013719456803397772,-0.10871821377679103,-0.02586972231899,          ,          ,0.0,0.0,0.0,          
-0.08695894171477711,-0.11724143028972799,-0.02030704051840104,          ,          ,0.0,0.0,0.0,          
0.045077028526028774,-0.017609627042993983,0.01186329272653831,          ,          ,0.0,0.0,0.0,          
-0.05131180321001185,-0.13759278201102282,-0.055480379421249545,          ,          ,0.0,0.0,0.0,          
-0.02769691077822113,-0.011280164548935247,-0.06993048799543096,          ,          ,0.0,0.0,0.0,          
-0.0047063381914230545,0.1154230167301722,-0.03974282558983587,          ,          ,0.0,0.0,0.0,          
0.04548374767894331,-0.061961039262824966,-0.11410459092280627,          ,          ,0.0,0.0,0.0,          
0.034436575579898064,-0.11059607576031982,-0.016976396165459925,          ,          ,0.0,0.0,0.0,          
0.035109063529913456,-0.00036183532566977237,-0.05105303012937634,          ,          ,0.0,0.0,0.0,          
0.05437451511312775,0.13303162544371266,-0.03211767486183824,          ,          ,0.0,0.0,0.0,          
0.01546489505827397,-0.021031729664664992,0.030454824463472994,          ,          ,0.0,0.0,0.0,          
0.026874885679664163,-0.10971762114310044,0.18319242766018087,          ,          ,0.0,0.0,0.0,          
0.07418863670024058,0.02332735731052105,-0.0845224590124526,          ,          ,0.0,0.0,0.0,          
-0.08555568935611962,-0.006125313937594384,-0.053399910323574114,          ,          ,0.0,0.0,0.0,          
-0.01648713930473071,0.05011842593744297,-0.08176056986874455,          ,          ,0.0,0.0,0.0,          
0.14672316292057824,0.04263297690867209,-0.025442502929631284,          ,          ,0.0,0.0,0.0,          
-0.067121535672581,0.027855354348144748,-0.003207628419346058,          ,          ,0.0,0.0,0.0,          
0.050772731575148715,-0.028026505920719355,-0.04419372283462418,          ,          ,0.0,0.0,0.0,          
-0.08631213092854506,-0.006306349624666013,-0.14676296107855127,          ,          ,0.0,0.0,0.0,          
-0.011314552382786905,-0.12017030007449606,0.10767002837019445,          ,          ,0.0,0.0,0.0,          
0.040646020067482476,-0.02304999380474714,-0.01858104716482177,          ,          ,0.0,0.0,0.0,          
0.047113028017220615,-0.021174377476976886,-0.005752277955202038,          ,          ,0.0,0.0,0.0,          
-0.04026105245221182,0.07354674372967336,-0.012939307708771214,          ,          ,0.0,0.0,0.0,          
-0.0015527310604601945,-0.18975496318235446,-0.012168567354460855,          ,          ,0.0,0.0,0.0,          
-0.02060797140378808,-0.020883934190009754,-0.005275897275241615,          ,          ,0.0,0.0,0.0,          
0.05511289542293177,-0.0908392216285583,-0.01864841665550956,          ,          ,0.0,0.0,0.0,          
0.039699694118027304,-0.18946282920694837,-0.1014253306954148,          ,          ,0.0,0.0,0.0,          
-0.010446994724184847,-0.0334359080351524,-0.002344339506705157,          ,          ,0.0,0.0,0.0,          
-0.0890285945799974,0.1636432524756181,-0.0014073568060674,          ,          ,0.0,0.0,0.0,          
0.006393560458935844,-0.1972675490584034,-0.023029924626842196,          ,          ,0.0,0.0,0.0,          
0.06535873098098995,0.17962687527468235,-0.04576884435117036,          ,          ,0.0,0.0,0.0,          
0.07499682044120103,0.10178870375404796,-0.03456612109231757,          ,          ,0.0,0.0,0.0,          
-0.01129745957023677,0.012024979243137538,-0.020592899488197654,          ,          ,0.0,0.0,0.0,          
0.006894256293082245,-0.08544422641889064,-0.029613070761476235,          ,          ,0.0,0.0,0.0,          
-0.007080339791010814,0.039116352593637715,-0.15920960791787217,          ,          ,0.0,0.0,0.0,          
-0.030486683737303694,0.04485689913410793,-0.08119077504259475,          ,          ,0.0,0.0,0.0,          
-0.019999966639785864,0.02373087200300576,0.014825886341164463,          ,          ,0.0,0.0,0.0,          
0.07759514063832634,-0.036592254586515605,-0.08432175377200984,          ,          ,0.0,0.0,0.0,          
-0.10788419728590876,-0.03325505940544765,-0.09261817873171482,          ,          ,0.0,0.0,0.0,          
0.14661881744840785,-0.006641613765544347,0.0170544329729048,          ,          ,0.0,0.0,0.0,          
-0.04816997364758906,0.08988153771159618,-0.009192094656870705,          ,          ,0.0,0.0,0.0,          
0.0801468645706894,0.026658792888222108,-0.11407456682175317,          ,          ,0.0,0.0,0.0,          
0.07002636076216115,0.012739878956700298,0.001952680807015658,          ,          ,0.0,0.0,0.0,          
-0.06055246339961332,-0.08760759129879311,-0.05538532755948705,          ,          ,0.0,0.0,0.0,          
-0.15035608490720853,-0.19765868257719427,0.06629801165513712,          ,          ,0.0,0.0,0.0,          
-0.10945251820024392,0.03439688297754284,0.0018881892166922908,          ,          ,0.0,0.0,0.0,          
-0.08609694836258577,-0.1098603273324978,0.008402653964617805,          ,          ,0.0,0.0,0.0,          
-0.057071125443499446,          ,          ,          ,          ,0.0,          ,          ,          
-0.035879205978005896,          ,          ,          ,          ,0.0,          ,          ,          
0.02405526742232586,          ,          ,          ,          ,0.0,          ,          ,          
-0.041674940691841036,          ,          ,          ,          ,0.0,          ,          ,          
-0.01147686889778738,          ,          ,          ,          ,0.0,          ,          ,          
0.0023493485539514774,          ,          ,          ,          ,0.0,          ,          ,          
-0.016628082947807068,          ,          ,          ,          ,0.0,          ,          ,          
-0.036406084371565665,          ,          ,          ,          ,0.0,          ,          ,          
0.11673267393616968,          ,          ,          ,          ,0.0,          ,          ,          
0.03379473845707142,          ,          ,          ,          ,0.0,          ,          ,          
-0.07672602695926647,          ,          ,          ,          ,0.0,          ,          ,          
-0.055410713787809956,          ,          ,          ,          ,0.0,          ,          ,          
-0.03260568557236448,          ,          ,          ,          ,0.0,          ,          ,          
0.06130069986121938,          ,          ,          ,          ,0.0,          ,          ,          
-0.006728034990139083,          ,          ,          ,          ,0.0,          ,          ,          
0.019056716842476767,          ,          ,          ,          ,0.0,          ,          ,          
0.04667782040829727,          ,          ,          ,          ,0.0,          ,          ,          
-0.05619103464647138,          ,          ,          ,          ,0.0,          ,          ,          
0.01747582175759487,          ,          ,          ,          ,0.0,          ,          ,          
-0.012509715066221939,          ,          ,          ,          ,0.0,          ,          ,          
-0.024390610797360286,          ,          ,          ,          ,0.0,          ,          ,          
0.07862911207650936,          ,          ,          ,          ,0.0,          ,          ,          
0.07657296329691618,          ,          ,          ,          ,0.0,          ,          ,          
-0.011253723457904092,          ,          ,          ,          ,0.0,          ,          ,          
-0.14622125399993938,          ,          ,          ,          ,0.0,          ,          ,          
-0.03760295360073713,          ,          ,          ,          ,0.0,          ,          ,          
-0.22268451586380572,          ,          ,          ,          ,0.0,          ,          ,          
-0.16285254133757024,          ,          ,          ,          ,0.0,          ,          ,          
-0.18838252271522066,          ,          ,          ,          ,0.0,          ,          ,          
-0.2012420671933854,          ,          ,          ,          ,0.0,          ,          ,          
-0.13050772225009538,          ,          ,          ,          ,0.0,          ,          ,          
-0.022872269285188505,          ,          ,          ,          ,0.0,          ,          ,          
-0.04345853601822996,          ,          ,          ,          ,0.0,          ,          ,          
0.02801673071567419,          ,          ,          ,          ,0.0,          ,          ,          
-0.049017659225210494,          ,          ,          ,          ,0.0,          ,          ,          
0.04662129979062244,          ,          ,          ,          ,0.0,          ,          ,          
-0.05540417862893786,          ,          ,          ,          ,0.0,          ,          ,          
0.052472539882228185,          ,          ,          ,          ,0.0,          ,          ,          
0.013109613887021854,          ,          ,          ,          ,0.0,          ,          ,          
0.06655062655296083,          ,          ,          ,          ,0.0,          ,          ,          
-0.02586185495507725,          ,          ,          ,          ,0.0,          ,          ,          
0.0028258639522912377,          ,          ,          ,          ,0.0,          ,          ,          
0.021325872980276217,          ,          ,          ,          ,0.0,          ,          ,          
-0.035900183730012095,          ,          ,          ,          ,0.0,          ,          ,          
-0.009486806380756543,          ,          ,          ,          ,0.0,          ,          ,          
-0.020440010023762816,          ,          ,          ,          ,0.0,          ,          ,          
-0.12237652834537138,          ,          ,          ,          ,0.0,          ,          ,          
-0.06411200644277221,          ,          ,          ,          ,0.0,          ,          ,          
0.009275553890796524,          ,          ,          ,          ,0.0,          ,          ,          
-0.08858127732841603,          ,          ,          ,          ,0.0,          ,          ,          
-0.02400339637061377,          ,          ,          ,          ,0.0,          ,          ,          
-0.15055580862093185,          ,          ,          ,          ,0.0,          ,          ,          
-0.23554609035600044,          ,          ,          ,          ,0.0,          ,          ,          
-0.3981351455801974,          ,          ,          ,          ,0.0,          ,          ,          
-0.5210049472533076,          ,          ,          ,          ,0.0,          ,          ,          
-0.5311326023876657,          ,          ,          ,          ,0.0,          ,          ,          
-0.5011182762950286,          ,          ,          ,          ,0.0,          ,          ,          
-0.3868476404980066,          ,          ,          ,          ,0.0,          ,          ,          
-0.3734676273564411,          ,          ,          ,          ,0.0,          ,          ,          
-0.2611485036495665,          ,          ,          ,          ,0.0,          ,          ,          
-0.10777518406560238,          ,          ,          ,          ,0.0,          ,          ,          
-0.007198953837850191,          ,          ,          ,          ,0.0,          ,          ,          
-0.02030706446540431,          ,          ,          ,          ,0.0,          ,          ,          
-0.005366259827518895,          ,          ,          ,          ,0.0,          ,          ,          
0.010207763930722008,          ,          ,          ,          ,0.0,          ,          ,          
-0.009033192286816823,          ,          ,          ,          ,0.0,          ,          ,          
-0.07697496238325291,          ,          ,          ,          ,0.0,          ,          ,          
-0.03288121010791563,          ,          ,          ,          ,0.0,          ,          ,          
0.00212068825476651,          ,          ,          ,          ,0.0,          ,          ,          
-0.05239115094178557,          ,          ,          ,          ,0.0,          ,          ,          
0.00241515507994869,          ,          ,          ,          ,0.0,          ,          ,          
0.024866667161068473,          ,          ,          ,          ,0.0,          ,          ,          
0.022587304064417925,          ,          ,          ,          ,0.0,          ,          ,          
0.05539609748754379,          ,          ,          ,          ,0.0,          ,          ,          
-0.01181468200764813,          ,          ,          ,          ,0.0,          ,          ,          
-0.10419974136173613,          ,          ,          ,          ,0.0,          ,          ,          
-0.09766876416711874,          ,          ,          ,          ,0.0,          ,          ,          
-0.09241806036620873,          ,          ,          ,          ,0.0,          ,          ,          
-0.21109054609376154,          ,          ,          ,          ,0.0,          ,          ,          
-0.44025149949354925,          ,          ,          ,          ,0.0,          ,          ,          
-0.6040960741924668,          ,          ,          ,          ,0.0,          ,          ,          
-0.5654257716285898,          ,          ,          ,          ,0.0,          ,          ,          
-0.745341444720952,          ,          ,          ,          ,0.0,          ,          ,          
-0.8076215418916595,          ,          ,          ,          ,0.0,          ,          ,          
-0.7425932410737419,          ,          ,          ,          ,0.0,          ,          ,          
-0.6456118336407396,          ,          ,          ,          ,0.0,          ,          ,          
-0.5766333956713814,          ,          ,          ,          ,0.0,          ,          ,          
-0.36141438488373884,          ,          ,          ,          ,0.0,          ,          ,          
-0.20861968433657424,          ,          ,          ,          ,0.0,          ,          ,          
-0.1188501205591291,          ,          ,          ,          ,0.0,          ,          ,          
0.03192943780956652,          ,          ,          ,          ,0.0,          ,          ,          
0.026969982067695894,          ,          ,          ,          ,0.0,          ,          ,          
0.12095867067748522,          ,          ,          ,          ,0.0,          ,          ,          
0.03609836142747407,          ,          ,          ,          ,0.0,          ,          ,          
0.040649092068023654,          ,          ,          ,          ,0.0,          ,          ,          
0.04918538757469924,          ,          ,          ,          ,0.0,          ,          ,          
0.034032054058100565,          ,          ,          ,          ,0.0,          ,          ,          
0.08896210573817599,          ,          ,          ,          ,0.0,          ,          ,          
0.0028070549448508957,          ,          ,          ,          ,0.0,          ,          ,          
-0.010202470655439392,          ,          ,          ,          ,0.0,          ,          ,          
0.03867727494887216,          ,          ,          ,          ,0.0,          ,          ,          
0.009800301977661503,          ,          ,          ,          ,0.0,          ,          ,          
-0.059380833540765864,          ,          ,          ,          ,0.0,          ,          ,          
-0.01136608498502988,          ,          ,          ,          ,0.0,          ,          ,          
-0.13831540942920212,          ,          ,          ,          ,0.0,          ,          ,          
-0.28022206297918684,          ,          ,          ,          ,0.0,          ,          ,          
-0.2504199392227361,          ,          ,          ,          ,0.0,          ,          ,          
-0.5083756319032938,          ,          ,          ,          ,0.0,          ,          ,          
-0.5518283981602684,          ,          ,          ,          ,0.0,          ,          ,          
-0.5640803566536565,          ,          ,          ,          ,0.0,          ,          ,          
-0.7600100009776163,          ,          ,          ,          ,0.0,          ,          ,          
-0.8592053654495042,          ,          ,          ,          ,0.0,          ,          ,          
-0.7094985397696313,          ,          ,          ,          ,0.0,          ,          ,          
-0.6252902399689085,          ,          ,          ,          ,0.0,          ,          ,          
-0.5336000603464415,          ,          ,          ,          ,0.0,          ,          ,          
-0.4860548274806892,          ,          ,          ,          ,0.0,          ,          ,          
-0.2655378056872957,          ,          ,          ,          ,0.0,          ,          ,          
-0.15289926058479505,          ,          ,          ,          ,0.0,          ,          ,          
-0.04955794257437118,          ,          ,          ,          ,0.0,          ,          ,          
0.08008209111050701,          ,          ,          ,          ,0.0,          ,          ,          
0.08896770655315628,          ,          ,          ,          ,0.0,          ,          ,          
0.14017766053157393,          ,          ,          ,          ,0.0,          ,          ,          
0.027590543620274025,          ,          ,          ,          ,0.0,          ,          ,          
0.0387781894244274,          ,          ,          ,          ,0.0,          ,          ,          
0.05016676153172093,          ,          ,          ,          ,0.0,          ,          ,          
0.12636823622196094,          ,          ,          ,          ,0.0,          ,          ,          
0.1246950115037257,          ,          ,          ,          ,0.0,          ,          ,          
-0.005553212929065128,          ,          ,          ,          ,0.0,          ,          ,          
0.02180815603900754,          ,          ,          ,          ,0.0,          ,          ,          
-0.004534486396137417,          ,          ,          ,          ,0.0,          ,          ,          
-0.14729060547732375,          ,          ,          ,          ,0.0,          ,          ,          
-0.20314804125450836,          ,          ,          ,          ,0.0,          ,          ,          
-0.14025398453361723,          ,          ,          ,          ,0.0,          ,          ,          
-0.3266307899588419,          ,          ,          ,          ,0.0,          ,          ,          
-0.3909157775746002,          ,          ,          ,          ,0.0,          ,          ,          
-0.3477590824004094,          ,          ,          ,          ,0.0,          ,          ,          
-0.7081629189427116,          ,          ,          ,          ,0.0,          ,          ,          
-0.6061214231836269,          ,          ,          ,          ,0.0,          ,          ,          
-0.6750047992438875,          ,          ,          ,          ,0.0,          ,          ,          
-0.5642843162566292,          ,          ,          ,          ,0.0,          ,          ,          
-0.6593977390597741,          ,          ,          ,          ,0.0,          ,          ,          
-0.48259218913296814,          ,          ,          ,          ,0.0,          ,          ,          
-0.44275629562621466,          ,          ,          ,          ,0.0,          ,          ,          
-0.4068796067824202,          ,          ,          ,          ,0.0,          ,          ,          
-0.32799454887480073,          ,          ,          ,          ,0.0,          ,          ,          
-0.1061514097528229,          ,          ,          ,          ,0.0,          ,          ,          
-0.052454839275228746,          ,          ,          ,          ,0.0,          ,          ,          
0.009746247966552036,          ,          ,          ,          ,0.0,          ,          ,          
0.06362828641390897,          ,          ,          ,          ,0.0,          ,          ,          
0.08377419033424713,          ,          ,          ,          ,0.0,          ,          ,          
0.009964035861056035,          ,          ,          ,          ,0.0,          ,          ,          
-0.05198103190717484,          ,          ,          ,          ,0.0,          ,          ,          
0.03324584861678259,          ,          ,          ,          ,0.0,          ,          ,          
0.008842988541738692,          ,          ,          ,          ,0.0,          ,          ,          
0.036491488479038964,          ,          ,          ,          ,0.0,          ,          ,          
-0.008170942353839144,          ,          ,          ,          ,0.0,          ,          ,          
0.03775672028796659,          ,          ,          ,          ,0.0,          ,          ,          
-0.011210965219558595,          ,          ,          ,          ,0.0,          ,          ,          
-0.1008917804072919,          ,          ,          ,          ,0.0,          ,          ,          
-0.13239552838845614,          ,          ,          ,          ,0.0,          ,          ,          
-0.22874894295946893,          ,          ,          ,          ,0.0,          ,          ,          
-0.3111104071904893,          ,          ,          ,          ,0.0,          ,          ,          
-0.48331636039477294,          ,          ,          ,          ,0.0,          ,          ,          
-0.3674508641261499,          ,          ,          ,          ,0.0,          ,          ,          
-0.4226361521531649,          ,          ,          ,          ,0.0,          ,          ,          
-0.4570476480191026,          ,          ,          ,          ,0.0,          ,          ,          
-0.5081904836962647,          ,          ,          ,          ,0.0,          ,          ,          
-0.38389562331876825,          ,          ,          ,          ,0.0,          ,          ,          
-0.4575526480884743,          ,          ,          ,          ,0.0,          ,          ,          
-0.4849819951112374,          ,          ,          ,          ,0.0,          ,          ,          
-0.4899012313283208,          ,          ,          ,          ,0.0,          ,          ,          
-0.42736367621669286,          ,          ,          ,          ,0.0,          ,          ,          
-0.2959590666515602,          ,          ,          ,          ,0.0,          ,          ,          
-0.24632216854117434,          ,          ,          ,          ,0.0,          ,          ,          
-0.10262614607264786,          ,          ,          ,          ,0.0,          ,          ,          
-0.02096020070750636,          ,          ,          ,          ,0.0,          ,          ,          
0.07063153168575757,          ,          ,          ,          ,0.0,          ,          ,          
0.12125365154428655,          ,          ,          ,          ,0.0,          ,          ,          
0.03195136289009279,          ,          ,          ,          ,0.0,          ,          ,          
-0.03839028493948086,          ,          ,          ,          ,0.0,          ,          ,          
0.022216425517615792,          ,          ,          ,          ,0.0,          ,          ,          
-0.03278770348689063,          ,          ,          ,          ,0.0,          ,          ,          
0.04769609304912268,          ,          ,          ,          ,0.0,          ,          ,          
0.03895102774163461,          ,          ,          ,          ,0.0,          ,          ,          
-0.00020823297396915084,          ,          ,          ,          ,0.0,          ,          ,          
-0.07560429226058292,          ,          ,          ,          ,0.0,          ,          ,          
-0.10984237862506503,          ,          ,          ,          ,0.0,          ,          ,          
-0.24019293934265645,          ,          ,          ,          ,0.0,          ,          ,          
-0.2164603221080267,          ,          ,          ,          ,0.0,          ,          ,          
-0.28516318475300123,          ,          ,          ,          ,0.0,          ,          ,          
-0.35963378571985394,          ,          ,          ,          ,0.0,          ,          ,          
-0.40218893293322644,          ,          ,          ,          ,0.0,          ,          ,          
-0.33797006243328087,          ,          ,          ,          ,0.0,          ,          ,          
-0.3350447242976389,          ,          ,          ,          ,0.0,          ,          ,          
-0.35739778012723705,          ,          ,          ,          ,0.0,          ,          ,          
-0.42910480107675786,          ,          ,          ,          ,0.0,          ,          ,          
-0.4448680704413999,          ,          ,          ,          ,0.0,          ,          ,          
-0.4340993223982097,          ,          ,          ,          ,0.0,          ,          ,          
-0.4600092765784904,          ,          ,          ,          ,0.0,          ,          ,          
-0.512393568130401,          ,          ,          ,          ,0.0,          ,          ,          
-0.43293273739195326,          ,          ,          ,          ,0.0,          ,          ,          
-0.3144309905750904,          ,          ,          ,          ,0.0,          ,          ,          
-0.2009586413321135,          ,          ,          ,          ,0.0,          ,          ,          
-0.17457806993690195,          ,          ,          ,          ,0.0,          ,          ,          
-0.0030846368166030065,          ,          ,          ,          ,0.0,          ,          ,          
0.10902417839075886,          ,          ,          ,          ,0.0,          ,          ,          
-0.04973424020990283,          ,          ,          ,          ,0.0,          ,          ,          
-0.025681243927942667,          ,          ,          ,          ,0.0,          ,          ,          
-0.07905198007612849,          ,          ,          ,          ,0.0,          ,          ,          
0.04932076249105947,          ,          ,          ,          ,0.0,          ,          ,          
-0.15658833972012257,          ,          ,          ,          ,0.0,          ,          ,          
-0.12152824195739394,          ,          ,          ,          ,0.0,          ,          ,          
0.04722660358917757,          ,          ,          ,          ,0.0,          ,          ,          
-0.09816946705459276,          ,          ,          ,          ,0.0,          ,          ,          
-0.07557580748718713,          ,          ,          ,          ,0.0,          ,          ,          
-0.20362627924066007,          ,          ,          ,          ,0.0,          ,          ,          
-0.2593940590120775,          ,          ,          ,          ,0.0,          ,          ,          
-0.19781430097130037,          ,          ,          ,          ,0.0,          ,          ,          
-0.3170099944259546,          ,          ,          ,          ,0.0,          ,          ,          
-0.2808672268035891,          ,          ,          ,          ,0.0,          ,          ,          
-0.44125834831157396,          ,          ,          ,          ,0.0,          ,          ,          
-0.4934914945987856,          ,          ,          ,          ,0.0,          ,          ,          
-0.5140662714847446,          ,          ,          ,          ,0.0,          ,          ,          
-0.48778331647614287,          ,          ,          ,          ,0.0,          ,          ,          
-0.38050717064283013,          ,          ,          ,          ,0.0,          ,          ,          
-0.5760885220408648,          ,          ,          ,          ,0.0,          ,          ,          
-0.5280548290861417,          ,          ,          ,          ,0.0,          ,          ,          
-0.48952921210474293,          ,          ,          ,          ,0.0,          ,          ,          
-0.4403389893359585,          ,          ,          ,          ,0.0,          ,          ,          
-0.3438968767230671,          ,          ,          ,          ,0.0,          ,          ,          
-0.2759776949295868,          ,          ,          ,          ,0.0,          ,          ,          
-0.03917522875432923,          ,          ,          ,          ,0.0,          ,          ,          
0.028979646969798566,          ,          ,          ,          ,0.0,          ,          ,          
-0.08297010268986772,          ,          ,          ,          ,0.0,          ,          ,          
-0.04909967277489381,          ,          ,          ,          ,0.0,          ,          ,          
0.015371905221784714,          ,          ,          ,          ,0.0,          ,          ,          
0.005270019354271288,          ,          ,          ,          ,0.0,          ,          ,          
-0.007692941951016395,          ,          ,          ,          ,0.0,          ,          ,          
-0.026198480257074986,          ,          ,          ,          ,0.0,          ,          ,          
-0.0053041083535760635,          ,          ,          ,          ,0.0,          ,          ,          
-0.012894587172738642,          ,          ,          ,          ,0.0,          ,          ,          
-0.05532820379470765,          ,          ,          ,          ,0.0,          ,          ,          
-0.040276045427827666,          ,          ,          ,          ,0.0,          ,          ,          
-0.05142517542125809,          ,          ,          ,          ,0.0,          ,          ,          
-0.12642313683393447,          ,          ,          ,          ,0.0,          ,          ,          
-0.2821823760333443,          ,          ,          ,          ,0.0,          ,          ,          
-0.3163539035497525,          ,          ,          ,          ,0.0,          ,          ,          
-0.3566170021792191,          ,          ,          ,          ,0.0,          ,          ,          
-0.44356599598592267,          ,          ,          ,          ,0.0,          ,          ,          
-0.48945064564817575,          ,          ,          ,          ,0.0,          ,          ,          
-0.6217450727511685,          ,          ,          ,          ,0.0,          ,          ,          
-0.7603378167695862,          ,          ,          ,          ,0.0,          ,          ,          
-0.7282691950430217,          ,          ,          ,          ,0.0,          ,          ,          
-0.5784034673072089,          ,          ,          ,          ,0.0,          ,          ,          
-0.55859478354576,          ,          ,          ,          ,0.0,          ,          ,          
-0.4768048474398926,          ,          ,          ,          ,0.0,          ,          ,          
-0.42258940566056424,          ,          ,          ,          ,0.0,          ,          ,          
-0.3319138976917855,          ,          ,          ,          ,0.0,          ,          ,          
-0.193615640162997,          ,          ,          ,          ,0.0,          ,          ,          
-0.12747238502046093,          ,          ,          ,          ,0.0,          ,          ,          
-0.0824932309243097,          ,          ,          ,          ,0.0,          ,          ,          
-0.04485491355125614,          ,          ,          ,          ,0.0,          ,          ,          
0.027440359075731707,          ,          ,          ,          ,0.0,          ,          ,          
0.022842587201143818,          ,          ,          ,          ,0.0,          ,          ,          
0.00929767605690994,          ,          ,          ,          ,0.0,          ,          ,          
0.012461536713874361,          ,          ,          ,          ,0.0,          ,          ,          
0.04648654469527037,          ,          ,          ,          ,0.0,          ,          ,          
0.07715330934779725,          ,          ,          ,          ,0.0,          ,          ,          
0.05661817698799486,          ,          ,          ,          ,0.0,          ,          ,          
0.07708482324253992,          ,          ,          ,          ,0.0,          ,          ,          
-0.1274431761725261,          ,          ,          ,          ,0.0,          ,          ,          
-0.035236651834485745,          ,          ,          ,          ,0.0,          ,          ,          
-0.2215503995035064,          ,          ,          ,          ,0.0,          ,          ,          
-0.26330973457462487,          ,          ,          ,          ,0.0,          ,          ,          
-0.2550227818897636,          ,          ,          ,          ,0.0,          ,          ,          
-0.28302541510681795,          ,          ,          ,          ,0.0,          ,          ,          
-0.4685338219461447,          ,          ,          ,          ,0.0,          ,          ,          
-0.4982353538142702,          ,          ,          ,          ,0.0,          ,          ,          
-0.7000549025990017,          ,          ,          ,          ,0.0,          ,          ,          
-0.7320033307243194,          ,          ,          ,          ,0.0,          ,          ,          
-0.7228016484791933,          ,          ,          ,          ,0.0,          ,          ,          
-0.5727584480101683,          ,          ,          ,          ,0.0,          ,          ,          
-0.4690668026353194,          ,          ,          ,          ,0.0,          ,          ,          
-0.43174986460432785,          ,          ,          ,          ,0.0,          ,          ,          
-0.24661843592393545,          ,          ,          ,          ,0.0,          ,          ,          
-0.34107807537651924,          ,          ,          ,          ,0.0,          ,          ,          
-0.15517960972362288,          ,          ,          ,          ,0.0,          ,          ,          
-0.08033033142111282,          ,          ,          ,          ,0.0,          ,          ,          
-0.15133762037955312,          ,          ,          ,          ,0.0,          ,          ,          
0.003220947849256805,          ,          ,          ,          ,0.0,          ,          ,          
-0.03581644566597453,          ,          ,          ,          ,0.0,          ,          ,          
-0.03696045232776495,          ,          ,          ,          ,0.0,          ,          ,          
0.049876488595453204,          ,          ,          ,          ,0.0,          ,          ,          
0.02773590981400976,          ,          ,          ,          ,0.0,          ,          ,          
-0.05892236323142359,          ,          ,          ,          ,0.0,          ,          ,          
0.12557478831286828,          ,          ,          ,          ,0.0,          ,          ,          
0.07841452715515357,          ,          ,          ,          ,0.0,          ,          ,          
-0.008307613954159805,          ,          ,          ,          ,0.0,          ,          ,          
-0.018186342482695038,          ,          ,          ,          ,0.0,          ,          ,          
0.014037889532010754,          ,          ,          ,          ,0.0,          ,          ,          
-0.007449947005651854,          ,          ,          ,          ,0.0,          ,          ,          
-0.1320860862846168,          ,          ,          ,          ,0.0,          ,          ,          
-0.20148911498406702,          ,          ,          ,          ,0.0,          ,          ,          
-0.32780096303689266,          ,          ,          ,          ,0.0,          ,          ,          
-0.5202451579438325,          ,          ,          ,          ,0.0,          ,          ,          
-0.7153716891355194,          ,          ,          ,          ,0.0,          ,          ,          
-0.787914412826769,          ,          ,          ,          ,0.0,          ,          ,          
-0.685016252102279,          ,          ,          ,          ,0.0,          ,          ,          
-0.6170997665964431,          ,          ,          ,          ,0.0,          ,          ,          
-0.5352601395105241,          ,          ,          ,          ,0.0,          ,          ,          
-0.4051035596684337,          ,          ,          ,          ,0.0,          ,          ,          
-0.2580917721474538,          ,          ,          ,          ,0.0,          ,          ,          
-0.1297310007362344,          ,          ,          ,          ,0.0,          ,          ,          
-0.082328081265187,          ,          ,          ,          ,0.0,          ,          ,          
-0.039994064986407674,          ,          ,          ,          ,0.0,          ,          ,          
-0.07418199840885324,          ,          ,          ,          ,0.0,          ,          ,          
0.05936524448099068,          ,          ,          ,          ,0.0,          ,          ,          
-0.008722559332828929,          ,          ,          ,          ,0.0,          ,          ,          
-0.041053606166109015,          ,          ,          ,          ,0.0,          ,          ,          
0.060020913102557534,          ,          ,          ,          ,0.0,          ,          ,          
0.041264514474415204,          ,          ,          ,          ,0.0,          ,          ,          
0.020793256376846855,          ,          ,          ,          ,0.0,          ,          ,          
-0.07651125185819409,          ,          ,          ,          ,0.0,          ,          ,          
-0.04160797823497827,          ,          ,          ,          ,0.0,          ,          ,          
0.052039680924553494,          ,          ,          ,          ,0.0,          ,          ,          
0.009134908058423279,          ,          ,          ,          ,0.0,          ,          ,          
0.023997277885018608,          ,          ,          ,          ,0.0,          ,          ,          
-0.10616299910326715,          ,          ,          ,          ,0.0,          ,          ,          
-0.08050146021419509,          ,          ,          ,          ,0.0,          ,          ,          
-0.22554167532914365,          ,          ,          ,          ,0.0,          ,          ,          
-0.28037464095411213,          ,          ,          ,          ,0.0,          ,          ,          
-0.4430282265697164,          ,          ,          ,          ,0.0,          ,          ,          
-0.566370548312145,          ,          ,          ,          ,0.0,          ,          ,          
-0.6274638128923469,          ,          ,          ,          ,0.0,          ,          ,          
-0.688714071135938,          ,          ,          ,          ,0.0,          ,          ,          
-0.6966667387694692,          ,          ,          ,          ,0.0,          ,          ,          
-0.5453713842290451,          ,          ,          ,          ,0.0,          ,          ,          
-0.48387699476256996,          ,          ,          ,          ,0.0,          ,          ,          
-0.344242712472575,          ,          ,          ,          ,0.0,          ,          ,          
-0.30492321899346164,          ,          ,          ,          ,0.0,          ,          ,          
-0.17578415630341088,          ,          ,          ,          ,0.0,          ,          ,          
-0.1388237036285282,          ,          ,          ,          ,0.0,          ,          ,          
-0.04338117655366062,          ,          ,          ,          ,0.0,          ,          ,          
0.03711502123880006,          ,          ,          ,          ,0.0,          ,          ,          
0.01505685988166834,          ,          ,          ,          ,0.0,          ,          ,          
0.05439664159068526,          ,          ,          ,          ,0.0,          ,          ,          
0.03245400593707489,          ,          ,          ,          ,0.0,          ,          ,          
0.053515338612354406,          ,          ,          ,          ,0.0,          ,          ,          
-0.013834909730765059,          ,          ,          ,          ,0.0,          ,          ,          
0.07031543514467946,          ,          ,          ,          ,0.0,          ,          ,          
-0.0166935222444392,          ,          ,          ,          ,0.0,          ,          ,          
-0.0711725195970356,          ,          ,          ,          ,0.0,          ,          ,          
-0.03806714324886802,          ,          ,          ,          ,0.0,          ,          ,          
0.026289927479749696,          ,          ,          ,          ,0.0,          ,          ,          
-0.012918031174239064,          ,          ,          ,          ,0.0,          ,          ,          
-0.12349798216361096,          ,          ,          ,          ,0.0,          ,          ,          
-0.214919017883354,          ,          ,          ,          ,0.0,          ,          ,          
-0.33540823065608205,          ,          ,          ,          ,0.0,          ,          ,          
-0.41785721472467874,          ,          ,          ,          ,0.0,          ,          ,          
-0.4701130946830529,          ,          ,          ,          ,0.0,          ,          ,          
-0.476255049861994,          ,          ,          ,          ,0.0,          ,          ,          
-0.5325094037393929,          ,          ,          ,          ,0.0,          ,          ,          
-0.44533853851306016,          ,          ,          ,          ,0.0,          ,          ,          
-0.5600830033704807,          ,          ,          ,          ,0.0,          ,          ,          
-0.4860164247811018,          ,          ,          ,          ,0.0,          ,          ,          
-0.32967267135974065,          ,          ,          ,          ,0.0,          ,          ,          
-0.2802283904458725,          ,          ,          ,          ,0.0,          ,          ,          
-0.21400655277409927,          ,          ,          ,          ,0.0,          ,          ,          
-0.16415491110225824,          ,          ,          ,          ,0.0,          ,          ,          
-0.04584105026802917,          ,          ,          ,          ,0.0,          ,          ,          
-0.04338552795341852,          ,          ,          ,          ,0.0,          ,          ,          
0.07609034807580167,          ,          ,          ,          ,0.0,          ,          ,          
0.046118719871396374,          ,          ,          ,          ,0.0,          ,          ,          
0.12635529910380366,          ,          ,          ,          ,0.0,          ,          ,          
0.010397962626950353,          ,          ,          ,          ,0.0,          ,          ,          
0.06759868347824834,          ,          ,          ,          ,0.0,          ,          ,          
-0.026674255588523706,          ,          ,          ,          ,0.0,          ,          ,          
0.03711210021194175,          ,          ,          ,          ,0.0,          ,          ,          
-0.11631226885785569,          ,          ,          ,          ,0.0,          ,          ,          
0.005539048705239041,          ,          ,          ,          ,0.0,          ,          ,          
0.010966643629216705,          ,          ,          ,          ,0.0,          ,          ,          
-0.026222403678429554,          ,          ,          ,          ,0.0,          ,          ,          
0.017441974418053584,          ,          ,          ,          ,0.0,          ,          ,          
-0.07859104519719755,          ,          ,          ,          ,0.0,          ,          ,          
-0.23993775032894266,          ,          ,          ,          ,0.0,          ,          ,          
-0.48679260759579684,          ,          ,          ,          ,0.0,          ,          ,          
-0.4700318884804976,          ,          ,          ,          ,0.0,          ,          ,          
-0.5566118216487366,          ,          ,          ,          ,0.0,          ,          ,          
-0.5917459647964757,          ,          ,          ,          ,0.0,          ,          ,          
-0.635345689511274,          ,          ,          ,          ,0.0,          ,          ,          
-0.37701314858310764,          ,          ,          ,          ,0.0,          ,          ,          
-0.36965748224266964,          ,          ,          ,          ,0.0,          ,          ,          
-0.4576588840961465,          ,          ,          ,          ,0.0,          ,          ,          
-0.3514795576639015,          ,          ,          ,          ,0.0,          ,          ,          
-0.34479767978593145,          ,          ,          ,          ,0.0,          ,          ,          
-0.22355689673128093,          ,          ,          ,          ,0.0,          ,          ,          
-0.1194695771878848,          ,          ,          ,          ,0.0,          ,          ,          
-0.09766655922496864,          ,          ,          ,          ,0.0,          ,          ,          
-0.030443185823501064,          ,          ,          ,          ,0.0,          ,          ,          
0.06489686392440386,          ,          ,          ,          ,0.0,          ,          ,          
0.013775874440172961,          ,          ,          ,          ,0.0,          ,          ,          
0.017076797541732625,          ,          ,          ,          ,0.0,          ,          ,          
0.029086740544489068,          ,          ,          ,          ,0.0,          ,          ,          
-0.02535609796780734,          ,          ,          ,          ,0.0,          ,          ,          
-0.03871493605223464,          ,          ,          ,          ,0.0,          ,          ,          
0.03015076369995308,          ,          ,          ,          ,0.0,          ,          ,          
-0.03996508619597972,          ,          ,          ,          ,0.0,          ,          ,          
0.018684539412251518,          ,          ,          ,          ,0.0,          ,          ,          
-0.0554461133009735,          ,          ,          ,          ,0.0,          ,          ,          
-0.07851147309402995,          ,          ,          ,          ,0.0,          ,          ,          
0.03523341986443155,          ,          ,          ,          ,0.0,          ,          ,          
-0.017576746474986978,          ,          ,          ,          ,0.0,          ,          ,          
-0.29293853383895063,          ,          ,          ,          ,0.0,          ,          ,          
-0.5478177514667049,          ,          ,          ,          ,0.0,          ,          ,          
-0.4668169586568591,          ,          ,          ,          ,0.0,          ,          ,          
-0.521674890123716,          ,          ,          ,          ,0.0,          ,          ,          
-0.4472918369348619,          ,          ,          ,          ,0.0,          ,          ,          
-0.33196006227974,          ,          ,          ,          ,0.0,          ,          ,          
-0.38005082771183724,          ,          ,          ,          ,0.0,          ,          ,          
-0.35800825673563896,          ,          ,          ,          ,0.0,          ,          ,          
-0.4058040642634168,          ,          ,          ,          ,0.0,          ,          ,          
-0.33218290078995955,          ,          ,          ,          ,0.0,          ,          ,          
-0.3468090856687403,          ,          ,          ,          ,0.0,          ,          ,          
-0.2624940592336387,          ,          ,          ,          ,0.0,          ,          ,          
-0.2486199944674657,          ,          ,          ,          ,0.0,          ,          ,          
-0.06537733432991327,          ,          ,          ,          ,0.0,          ,          ,          
-0.0512634672937114,          ,          ,          ,          ,0.0,          ,          ,          
-0.08048454401942068,          ,          ,          ,          ,0.0,          ,          ,          
-0.04308648530760841,          ,          ,          ,          ,0.0,          ,          ,          
-0.04243590067931008,          ,          ,          ,          ,0.0,          ,          ,          
-0.023816260419572306,          ,          ,          ,          ,0.0,          ,          ,          
0.032301118180091994,          ,          ,          ,          ,0.0,          ,          ,          
-0.025628856756722676,          ,          ,          ,          ,0.0,          ,          ,          
-0.048068363944002705,          ,          ,          ,          ,0.0,          ,          ,          
0.027059263727780846,          ,          ,          ,          ,0.0,          ,          ,          
-0.05099835000853358,          ,          ,          ,          ,0.0,          ,          ,          
-0.07861271158910575,          ,          ,          ,          ,0.0,          ,          ,          
-0.04091248848715336,          ,          ,          ,          ,0.0,          ,          ,          
-0.09633361708253123,          ,          ,          ,          ,0.0,          ,          ,          
-0.09744685507048312,          ,          ,          ,          ,0.0,          ,          ,          
-0.3011910924306263,          ,          ,          ,          ,0.0,          ,          ,          
-0.4639231938585338,          ,          ,          ,          ,0.0,          ,          ,          
-0.4928371446106539,          ,          ,          ,          ,0.0,          ,          ,          
-0.384312587572458,          ,          ,          ,          ,0.0,          ,          ,          
-0.38664305611736915,          ,          ,          ,          ,0.0,          ,          ,          
-0.2690329225268155,          ,          ,          ,          ,0.0,          ,          ,          
-0.2594093541067693,          ,          ,          ,          ,0.0,          ,          ,          
-0.37630340401759205,          ,          ,          ,          ,0.0,          ,          ,          
-0.4881963794126303,          ,          ,          ,          ,0.0,          ,          ,          
-0.464162340481245,          ,          ,          ,          ,0.0,          ,          ,          
-0.25380098001366674,          ,          ,          ,          ,0.0,          ,          ,          
-0.2636024165939391,          ,          ,          ,          ,0.0,          ,          ,          
-0.16639456308640874,          ,          ,          ,          ,0.0,          ,          ,          
-0.11567568925890848,          ,          ,          ,          ,0.0,          ,          ,          
-0.11292847036383641,          ,          ,          ,          ,0.0,          ,          ,          
-0.07877034209207782,          ,          ,          ,          ,0.0,          ,          ,          
0.028320284202822368,          ,          ,          ,          ,0.0,          ,          ,          
0.004735213990928368,          ,          ,          ,          ,0.0,          ,          ,          
0.016154564619770318,          ,          ,          ,          ,0.0,          ,          ,          
-0.03643462770964958,          ,          ,          ,          ,0.0,          ,          ,          
0.027751309294206675,          ,          ,          ,          ,0.0,          ,          ,          
0.06311723809966523,          ,          ,          ,          ,0.0,          ,          ,          
0.03266423208272347,          ,          ,          ,          ,0.0,          ,          ,          
0.06934620491949951,          ,          ,          ,          ,0.0,          ,          ,          
-0.014053490427162115,          ,          ,          ,          ,0.0,          ,          ,          
-0.13104910279758536,          ,          ,          ,          ,0.0,          ,          ,          
-0.1836256492119992,          ,          ,          ,          ,0.0,          ,          ,          
-0.20761195862209045,          ,          ,          ,          ,0.0,          ,          ,          
-0.4036834574008032,          ,          ,          ,          ,0.0,          ,          ,          
-0.2728808506406619,          ,          ,          ,          ,0.0,          ,          ,          
-0.382360288224999,          ,          ,          ,          ,0.0,          ,          ,          
-0.37149421301854807,          ,          ,          ,          ,0.0,          ,          ,          
-0.3783161544344105,          ,          ,          ,          ,0.0,          ,          ,          
-0.3143651181427748,          ,          ,          ,          ,0.0,          ,          ,          
-0.5180303711980805,          ,          ,          ,          ,0.0,          ,          ,          
-0.5214637596848823,          ,          ,          ,          ,0.0,          ,          ,          
-0.32844633891491726,          ,          ,          ,          ,0.0,          ,          ,          
-0.3551525576026559,          ,          ,          ,          ,0.0,          ,          ,          
-0.38943749952943396,          ,          ,          ,          ,0.0,          ,          ,          
-0.3518089410173143,          ,          ,          ,          ,0.0,          ,          ,          
-0.19047264884687515,          ,          ,          ,          ,0.0,          ,          ,          
-0.0991139255547245,          ,          ,          ,          ,0.0,          ,          ,          
-0.04545740415070516,          ,          ,          ,          ,0.0,          ,          ,          
-0.03861835324682619,          ,          ,          ,          ,0.0,          ,          ,          
0.010125531670128862,          ,          ,          ,          ,0.0,          ,          ,          
0.05439929997657789,          ,          ,          ,          ,0.0,          ,          ,          
0.07324419380104516,          ,          ,          ,          ,0.0,          ,          ,          
-0.002928008497415669,          ,          ,          ,          ,0.0,          ,          ,          
0.010759305900223256,          ,          ,          ,          ,0.0,          ,          ,          
-0.04537918609114893,          ,          ,          ,          ,0.0,          ,          ,          
0.07414934982252062,          ,          ,          ,          ,0.0,          ,          ,          
0.006541403760712021,          ,          ,          ,          ,0.0,          ,          ,          
0.020691118426826687,          ,          ,          ,          ,0.0,          ,          ,          
-0.07339495320574907,          ,          ,          ,          ,0.0,          ,          ,          
-0.15808488345214236,          ,          ,          ,          ,0.0,          ,          ,          
-0.22777984493898074,          ,          ,          ,          ,0.0,          ,          ,          
-0.31859987646574683,          ,          ,          ,          ,0.0,          ,          ,          
-0.3607175099611649,          ,          ,          ,          ,0.0,          ,          ,          
-0.329446660990851,          ,          ,          ,          ,0.0,          ,          ,          
-0.48084662225360864,          ,          ,          ,          ,0.0,          ,          ,          
-0.5673403793076152,          ,          ,          ,          ,0.0,          ,          ,          
-0.5979166129675466,          ,          ,          ,          ,0.0,          ,          ,          
-0.5225187018125199,          ,          ,          ,          ,0.0,          ,          ,          
-0.6023871184915497,          ,          ,          ,          ,0.0,          ,          ,          
-0.4749084452193556,          ,          ,          ,          ,0.0,          ,          ,          
-0.5162977967582264,          ,          ,          ,          ,0.0,          ,          ,          
-0.36257658359151473,          ,          ,          ,          ,0.0,          ,          ,          
-0.21605209427181105,          ,          ,          ,          ,0.0,          ,          ,          
-0.09785511670958207,          ,          ,          ,          ,0.0,          ,          ,          
-0.03505553391168385,          ,          ,          ,          ,0.0,          ,          ,          
0.0012901999256876547,          ,          ,          ,          ,0.0,          ,          ,          
0.009212286459155372,          ,          ,          ,          ,0.0,          ,          ,          
0.08707686279366122,          ,          ,          ,          ,0.0,          ,          ,          
-0.024601476363153886,          ,          ,          ,          ,0.0,          ,          ,          
0.0745512434309591,          ,          ,          ,          ,0.0,          ,          ,          
0.12247767418943775,          ,          ,          ,          ,0.0,          ,          ,          
0.04627405163771118,          ,          ,          ,          ,0.0,          ,          ,          
-0.03134115064228431,          ,          ,          ,          ,0.0,          ,          ,          
-0.04178404168068005,          ,          ,          ,          ,0.0,          ,          ,          
-0.055825330218721506,          ,          ,          ,          ,0.0,          ,          ,          
-0.13179912444649242,          ,          ,          ,          ,0.0,          ,          ,          
-0.07293762785215345,          ,          ,          ,          ,0.0,          ,          ,          
-0.158171469600064,          ,          ,          ,          ,0.0,          ,          ,          
-0.1786424545541316,          ,          ,          ,          ,0.0,          ,          ,          
-0.26289833595128864,          ,          ,          ,          ,0.0,          ,          ,          
-0.21433588278159468,          ,          ,          ,          ,0.0,          ,          ,          
-0.40286955535925967,          ,          ,          ,          ,0.0,          ,          ,          
-0.4668322863351704,          ,          ,          ,          ,0.0,          ,          ,          
-0.5504756349323668,          ,          ,          ,          ,0.0,          ,          ,          
-0.7363100887926471,          ,          ,          ,          ,0.0,          ,          ,          
-0.6410789941303676,          ,          ,          ,          ,0.0,          ,          ,          
-0.6181404911465563,          ,          ,          ,          ,0.0,          ,          ,          
-0.46451891095414904,          ,          ,          ,          ,0.0,          ,          ,          
-0.3485644247084088,          ,          ,          ,          ,0.0,          ,          ,          
-0.34629112720994804,          ,          ,          ,          ,0.0,          ,          ,          
-0.07013220602791463,          ,          ,          ,          ,0.0,          ,          ,          
-0.05672994078284457,          ,          ,          ,          ,0.0,          ,          ,          
-0.05612337811992651,          ,          ,          ,          ,0.0,          ,          ,          
0.008203099804749533,          ,          ,          ,          ,0.0,          ,          ,          
-0.028003124914663457,          ,          ,          ,          ,0.0,          ,          ,          
0.026732732051396726,          ,          ,          ,          ,0.0,          ,          ,          
-0.030198897538424477,          ,          ,          ,          ,0.0,          ,          ,          
-0.05624250835335259,          ,          ,          ,          ,0.0,          ,          ,          
-0.05415230677901706,          ,          ,          ,          ,0.0,          ,          ,          
0.03222627074916129,          ,          ,          ,          ,0.0,          ,          ,          
-0.016211996641709848,          ,          ,          ,          ,0.0,          ,          ,          
0.021680450446468005,          ,          ,          ,          ,0.0,          ,          ,          
-0.006589045951239119,          ,          ,          ,          ,0.0,          ,          ,          
0.02411673377022123,          ,          ,          ,          ,0.0,          ,          ,          
-0.08460646222773044,          ,          ,          ,          ,0.0,          ,          ,          
-0.05450100573405551,          ,          ,          ,          ,0.0,          ,          ,          
-0.14745658331901954,          ,          ,          ,          ,0.0,          ,          ,          
-0.12603410743740426,          ,          ,          ,          ,0.0,          ,          ,          
-0.23520072439437603,          ,          ,          ,          ,0.0,          ,          ,          
-0.364072627554121,          ,          ,          ,          ,0.0,          ,          ,          
-0.44003801142266824,          ,          ,          ,          ,0.0,          ,          ,          
-0.6029768894372939,          ,          ,          ,          ,0.0,          ,          ,          
-0.5190310279966447,          ,          ,          ,          ,0.0,          ,          ,          
-0.522934718856,          ,          ,          ,          ,0.0,          ,          ,          
-0.43291329502533604,          ,          ,          ,          ,0.0,          ,          ,          
-0.315691619089147,          ,          ,          ,          ,0.0,          ,          ,          
-0.3107973783274891,          ,          ,          ,          ,0.0,          ,          ,          
-0.13775669978400623,          ,          ,          ,          ,0.0,          ,          ,          
-0.1537079816842257,          ,          ,          ,          ,0.0,          ,          ,          
-0.09650245562771577,          ,          ,          ,          ,0.0,          ,          ,          
0.031578362349139466,          ,          ,          ,          ,0.0,          ,          ,          
-0.04787433332355442,          ,          ,          ,          ,0.0,          ,          ,          
0.0059521408821828934,          ,          ,          ,          ,0.0,          ,          ,          
-0.06748605956424467,          ,          ,          ,          ,0.0,          ,          ,          
-0.009847242888150124,          ,          ,          ,          ,0.0,          ,          ,          
0.038453052489453764,          ,          ,          ,          ,0.0,          ,          ,          
0.037792757678467084,          ,          ,          ,          ,0.0,          ,          ,          
-0.031389607456756966,          ,          ,          ,          ,0.0,          ,          ,          
-0.017495186618240125,          ,          ,          ,          ,0.0,          ,          ,          
-0.024596465686976737,          ,          ,          ,          ,0.0,          ,          ,          
0.0025994662897193153,          ,          ,          ,          ,0.0,          ,          ,          
-0.018746290902547667,          ,          ,          ,          ,0.0,          ,          ,          
-0.1018711445862296,          ,          ,          ,          ,0.0,          ,          ,          
0.0007608245786796464,          ,          ,          ,          ,0.0,          ,          ,          
-0.023077241733610556,          ,          ,          ,          ,0.0,          ,          ,          
-0.09775690993710434,          ,          ,          ,          ,0.0,          ,          ,          
-0.20058515443545635,          ,          ,          ,          ,0.0,          ,          ,          
-0.2285984803383387,          ,          ,          ,          ,0.0,          ,          ,          
-0.11385323084064489,          ,          ,          ,          ,0.0,          ,          ,          
-0.3725812532714051,          ,          ,          ,          ,0.0,          ,          ,          
-0.2889430302228888,          ,          ,          ,          ,0.0,          ,          ,          
-0.26459113775069704,          ,          ,          ,          ,0.0,          ,          ,          
-0.2429377962189222,          ,          ,          ,          ,0.0,          ,          ,          
-0.24139134504943646,          ,          ,          ,          ,0.0,          ,          ,          
-0.11409238840715148,          ,          ,          ,          ,0.0,          ,          ,          
-0.11941351385324887,          ,          ,          ,          ,0.0,          ,          ,          
-0.14881032499174163,          ,          ,          ,          ,0.0,          ,          ,          
-0.016201474861492784,          ,          ,          ,          ,0.0,          ,          ,          
0.011800743527401755,          ,          ,          ,          ,0.0,          ,          ,          
-0.06452756028539963,          ,          ,          ,          ,0.0,          ,          ,          
-0.051036391136359834,          ,          ,          ,          ,0.0,          ,          ,          
0.05696962181641152,          ,          ,          ,          ,0.0,          ,          ,          
0.021528272315955204,          ,          ,          ,          ,0.0,          ,          ,          
0.0946753534828119,          ,          ,          ,          ,0.0,          ,          ,          
-0.006562299806229705,          ,          ,          ,          ,0.0,          ,          ,          
0.08562196882275694,          ,          ,          ,          ,0.0,          ,          ,          
0.08768893988092803,          ,          ,          ,          ,0.0,          ,          ,          
-0.04345314928658808,          ,          ,          ,          ,0.0,          ,          ,          
-0.05947591578568952,          ,          ,          ,          ,0.0,          ,          ,          
-0.031514429661210944,          ,          ,          ,          ,0.0,          ,          ,          
-0.0023948981901902484,          ,          ,          ,          ,0.0,          ,          ,          
0.08553899146823853,          ,          ,          ,          ,0.0,          ,          ,          
-0.14407730822775516,          ,          ,          ,          ,0.0,          ,          ,          
-0.04985749630572961,          ,          ,          ,          ,0.0,          ,          ,          
-0.025750750290683095,          ,          ,          ,          ,0.0,          ,          ,          
-0.054413199768623764,          ,          ,          ,          ,0.0,          ,          ,          
-0.13236140179226968,          ,          ,          ,          ,0.0,          ,          ,          
-0.04386595011547972,          ,          ,          ,          ,0.0,          ,          ,          
-0.057067460481885386,          ,          ,          ,          ,0.0,          ,          ,          
-0.008555051679774859,          ,          ,          ,          ,0.0,          ,          ,          
-0.15564799844292523,          ,          ,          ,          ,0.0,          ,          ,          
0.023021757634937103,          ,          ,          ,          ,0.0,          ,          ,          
-0.07091907095325642,          ,          ,          ,          ,0.0,          ,          ,          
-0.08473582249587547,          ,          ,          ,          ,0.0,          ,          ,          
-0.13395179382012146,          ,          ,          ,          ,0.0,          ,          ,          
-0.041470766051384354,          ,          ,          ,          ,0.0,          ,          ,          
-0.12529337232635207,          ,          ,          ,          ,0.0,          ,          ,          
-0.06285544146132033,          ,          ,          ,          ,0.0,          ,          ,          
-0.1512661148637371,          ,          ,          ,          ,0.0,          ,          ,          
-0.04222727752800263,          ,          ,          ,          ,0.0,          ,          ,          
-0.027465833174115696,          ,          ,          ,          ,0.0,          ,          ,          
-0.0429404477727092,          ,          ,          ,          ,0.0,          ,          ,          
-0.09005248971017217,          ,          ,          ,          ,0.0,          ,          ,          
0.02908395945449887,          ,          ,          ,          ,0.0,          ,          ,          
-0.08990765558620738,          ,          ,          ,          ,0.0,          ,          ,          
0.013355291530383458,          ,          ,          ,          ,0.0,          ,          ,          
-0.11828193302910904,          ,          ,          ,          ,0.0,          ,          ,          
0.14131905264675837,          ,          ,          ,          ,0.0,          ,          ,          
-0.04871671117574669,          ,          ,          ,          ,0.0,          ,          ,          
-0.002493379080475596,          ,          ,          ,          ,0.0,          ,          ,          
-0.03983667564906548,          ,          ,          ,          ,0.0,          ,          ,          
0.009567527576625308,          ,          ,          ,          ,0.0,          ,          ,          
0.03942486579404904,          ,          ,          ,          ,0.0,          ,          ,          
0.01854296297542439,          ,          ,          ,          ,0.0,          ,          ,          
-0.054619010745131015,          ,          ,          ,          ,0.0,          ,          ,          
-0.08294475887069166,          ,          ,          ,          ,0.0,          ,          ,          
-0.044960300495587996,          ,          ,          ,          ,0.0,          ,          ,          
-0.055977922187576946,          ,          ,          ,          ,0.0,          ,          ,          
0.045659171020960725,          ,          ,          ,          ,0.0,          ,          ,          
-0.04983827535239241,          ,          ,          ,          ,0.0,          ,          ,          
0.035584533599908645,          ,          ,          ,          ,0.0,          ,          ,          
-0.12344101058120419,          ,          ,          ,          ,0.0,          ,          ,          
0.05790821907358677,          ,          ,          ,          ,0.0,          ,          ,          
0.056281862804857516,          ,          ,          ,          ,0.0,          ,          ,          
-0.05205078456333169,          ,          ,          ,          ,0.0,          ,          ,          
0.06991213008023957,          ,          ,          ,          ,0.0,          ,          ,          
-0.04502369561915874,          ,          ,          ,          ,0.0,          ,          ,          
0.037795158367033725,          ,          ,          ,          ,0.0,          ,          ,          
-0.066391197071291,          ,          ,          ,          ,0.0,          ,          ,          
0.10041699618608911,          ,          ,          ,          ,0.0,          ,          ,          
0.04872235988323105,          ,          ,          ,          ,0.0,          ,          ,          
-0.0210678644667018,          ,          ,          ,          ,0.0,          ,          ,          
-0.09504464346547804,          ,          ,          ,          ,0.0,          ,          ,          
-0.045527712444512675,          ,          ,          ,          ,0.0,          ,          ,          
0.02071828029932375,          ,          ,          ,          ,0.0,          ,          ,          
0.03322688189503436,          ,          ,          ,          ,0.0,          ,          ,          
0.04441868850530879,          ,          ,          ,          ,0.0,          ,          ,          
-0.05178046060603683,          ,          ,          ,          ,0.0,          ,          ,          
-0.02698537096725743,          ,          ,          ,          ,0.0,          ,          ,          
0.03335659050176159,          ,          ,          ,          ,0.0,          ,          ,          
0.04415308446500822,          ,          ,          ,          ,0.0,          ,          ,          
-0.01683797805029413,          ,          ,          ,          ,0.0,          ,          ,          
0.007128043214688207,          ,          ,          ,          ,0.0,          ,          ,          
0.024836042539651382,          ,          ,          ,          ,0.0,          ,          ,          
0.01131938418210236,          ,          ,          ,          ,0.0,          ,          ,          
-0.02070806900271398,          ,          ,          ,          ,0.0,          ,          ,          
0.0033819033241099168,          ,          ,          ,          ,0.0,          ,          ,          
0.05440101259702168,          ,          ,          ,          ,0.0,          ,          ,          
-0.045572566715117474,          ,          ,          ,          ,0.0,          ,          ,          
0.01657841416246883,          ,          ,          ,          ,0.0,          ,          ,          
0.10890482325189246,          ,          ,          ,          ,0.0,          ,          ,          
0.07248621284463488,          ,          ,          ,          ,0.0,          ,          ,          
-0.05630158713179643,          ,          ,          ,          ,0.0,          ,          ,          
-0.04651495361601639,          ,          ,          ,          ,0.0,          ,          ,          
0.032147857403635786,          ,          ,          ,          ,0.0,          ,          ,          
-0.016801275649368126,          ,          ,          ,          ,0.0,          ,          ,          
-0.021174224809080086,          ,          ,          ,          ,0.0,          ,          ,          
-0.08017031923399551,          ,          ,          ,          ,0.0,          ,          ,          
-0.006221019602291637,          ,          ,          ,          ,0.0,          ,          ,          
